{"input_data_shape": [1000, 10], "val_data_shape": [476, 10], "structure": [10, 8, 20, 2], "func": [["sigmoid", 1], ["sigmoid", 1], ["sigmoid", 1], ["linear", 1]], "starting_points": [0.001, 0.05, 0.05, 0.01], "eta": 5e-05, "lamb": 0.0001, "norm_L": 2, "alpha": 0, "nesterov": false, "epoch": 0, "train_MEE": [15.09822139186582], "train_MSE": [271.4118379886564], "val_MEE": [13.7961537391568], "val_MSE": [229.84038605844032], "weights_epoch0": [[[-0.033194654618048075, -0.02459934766563694, 0.07749139792513934, -0.06833710362935404, 0.06556044993689158, -0.05766473010841199, -0.002229703282480816, 0.027766144428869582, 0.04091601836723062, -0.024448064400946705], [-0.07646694746315644, -0.006620913667932368, -0.03899649824763031, 0.03420117404350378, 0.009233088775758373, 0.05241699325965111, 0.047395558133460594, -0.07840718989288761, -0.05501415048922434, 0.09158897527954762], [0.04113381756181972, 0.010553480387290606, 0.0861066597971795, -0.012705497892903707, 0.020570362576769412, 0.031248005986108073, 0.028582150934572635, -0.07729648074912383, 0.06564618500363659, 0.031628823434166314], [0.026976654555169104, 0.018018531235378586, -0.07086254099686547, 0.09173793189615609, 0.0678999933339046, 0.04267479561363867, -0.07482747295024413, -0.04107244090826374, -0.07347909309356589, -0.006292305337966621], [0.019825117117855548, 0.10037549496403265, -0.04338658553243749, -0.09598418278363352, -0.06386659462803548, 0.0017531862822157214, -0.06062869393204169, 0.05634859111888018, -0.02083872894471792, 0.05933288894357835], [0.010401156576206978, -0.029201089402531324, 0.06052372222023185, -0.09528053170439267, 0.07502425230894508, -0.049488783355775605, -0.017312102610436305, -0.05285739010898044, -0.008538212515268385, 0.05909622340345884], [-0.07667549772015175, 0.015364449994589606, -0.0484105328959607, 0.05313665305320457, 0.0720243072655809, 0.05225862579213648, -0.03112755204845352, -0.09602375438202888, 0.01965854140291858, 0.07456107848283558], [0.04940409026566902, -0.04548066421667725, -0.025176481171600887, 0.0062154524802747, -0.03744992345372948, -0.047249828025433524, -0.027612031986865213, 0.059387756006594475, 0.08170947741965695, 0.06499204483240459], [-0.032729704383494936, -0.060091569580900804, -0.031347615591064346, 0.08366208325882539, -0.024567875330583563, 0.006527481773360446, 0.04614786677021661, -0.0933076566252022, -0.04949652354348108, -0.005391626703077714], [-0.048586732304340075, -0.052935189533580285, 0.027602823189836836, 0.009908033987465118, 0.05019417267975652, 0.009472235825604266, 0.018332029472475628, -0.05004796048489381, 0.07402406504977672, 0.022011810038402423]], [[0.07910239571901119, 0.04068895221005643, 0.08550472578392258, -0.05210049691472238, 0.044354187612384036, -0.007547558714333137, -0.058033428728763076, -0.0241581935170115, 0.08439890277654319, -0.014838096201287503], [0.03902846478031435, -0.06454628719321012, -0.08509242446768174, -0.03506309532663553, 0.038661508978287, -0.05920001171459088, -0.0563902674436379, -0.012275701234514283, 0.0782118284256583, 0.06891778361049349], [-0.023884702452382674, -0.05476523476792028, 0.07276835651836619, -0.010401472622406115, 0.05336299781920817, -0.0404946464432966, -0.05881490327188024, -0.0671518683330892, 0.011728339536061123, 0.0681528202893126], [-0.058068904029524235, 0.054414492887208864, -0.06670361836804697, -0.04753852663347835, 0.11371202123081925, 0.04504266484072025, 0.005569795729646349, 0.08749241551882875, 0.06254727919856945, 0.04194640708871493], [0.04030956453713841, -0.035194372649535066, 0.06696928542066163, -0.023258792440547536, -0.030448753868413753, -0.05039967421664854, 0.011832193170436912, 0.06840141440757655, 0.04388421762522367, 0.07119613294607607], [0.08352681122616953, 0.05677518949478946, 0.11460230909032952, 0.024012066661434822, 0.014882020288203145, 0.09010161510673734, -0.05409230220876088, 0.03263036191574539, -0.04314672010614748, -0.005566579786182944], [0.04141166377176096, 0.07403226715994393, -0.05275578202808255, 0.11578040834038036, 0.026408143831900478, 0.033724577021738346, -0.0644636026455298, 0.011918894681978744, 0.12173277614651973, 0.06659879085223741], [0.08715624738359928, 0.04524368999238769, 0.10041663208686241, -0.010682964965558386, -0.012112119079324697, 0.04537439850105199, -0.028999781035475087, -0.03355155570770668, 0.02485867982469842, 0.05302044259090122]], [[0.0189034675871982, 0.06248606590931772, 0.09671893273982705, 0.007435277558682722, 0.06615733875658675, -0.04266844269274457, 0.06462726166020025, 0.0866113200145978], [0.11805679361032177, 0.06524256753190913, 0.024265685009241728, 0.05649921921860239, 0.011324567256970217, -0.0017287981734095959, -0.00110432501499097, 0.14114402652473923], [0.12999692578540947, -0.04234459430396194, 0.039411332315020774, 0.048310055103022755, 0.10121022755695196, -0.03314883958601912, 0.11085849462088473, 0.059168604631335366], [-0.03672182526664883, -0.02158024761916154, -0.022976912734476704, -0.03932608885407819, 0.14679210389314573, 0.1194052818927109, 0.023884718387195678, -0.007105847283274444], [0.11161700091939322, 0.0020073155080901697, 0.04393937390291252, -0.025279006824241904, -0.005614093299478623, 0.15170548722133717, 0.005356651449788752, 0.03927749478171421], [-0.029024059610359393, 0.07659474924683055, 0.12731327664055614, 0.11279437854510377, 0.039525242178366574, -0.011915441982257413, 0.08184881691778537, 0.13346134243873656], [0.15827572895721692, 0.13588316739054024, 0.04879160684541471, 0.09363105797426927, 0.16518581135420754, 0.16254485966245763, 0.1322249872564228, 0.10149890080757162], [0.03570775871542666, 0.15408383780878043, 0.11382682315063755, 0.14175591300928256, 0.15893404129050853, 0.1492121174456663, 0.02766992991793045, 0.040955156452816596], [0.003042298124202897, 0.08353535892607365, 0.03573229974459893, 0.03605839664553463, 0.11339670691648804, 0.05627056295295953, 0.05871991802270814, 0.11309720787594148], [0.09479331715438816, 0.06526980655235837, 0.09500264083976522, 0.05544128184920226, 0.10375929951930159, 0.1426956352132448, 0.04170997983880046, 0.008608496843757418], [0.1110578839744713, -0.008853923059647648, 0.1241495573939154, 0.03236386795419105, 0.10030016025484012, 0.08939646891655686, 0.11632722525325494, 0.061641543779500124], [0.08486974842117477, 0.010867080583860607, -0.010662666566216963, 0.09945887142233803, -0.034661539431451525, 0.03519804270112144, 0.05698829207756975, 0.01323357627300105], [0.12117800870077974, -0.020984797773791974, 0.012886598305830603, 0.04407875273991735, 0.0068536057523373925, 0.0851928188080253, 0.1541447040668057, 0.12047228187239514], [0.023001064878225168, -0.037380413797365515, 0.0949450460532191, -0.025320139269418403, 0.03315777396133632, 0.10894854357586917, 0.09096781579844795, 0.13802222593076544], [0.02444786757475579, -0.0472375244927761, 0.15262499495715176, -0.01321092029780175, 0.06449776546701265, -0.005017634712049225, 0.04787395243981588, 0.08500597851831142], [0.018537462979570138, -0.022704103587065483, 0.08448028438506179, 0.09864533329275377, -0.0020542117817560213, 0.1515790225611365, 0.03567655070020474, 0.13133517028007674], [0.14441597935817568, 0.10252935772184722, 0.012516246282599258, 0.10693284067960483, 0.04729382723210997, 0.0964125996451754, 0.13249381181524617, 0.018050832713755516], [0.0749499676799192, 0.03713794499352589, 0.07492085218614786, 0.03595832889682715, 0.06374040384750544, 0.03249488298640729, 0.08240689057375275, 0.14286503148488977], [0.1136945224399141, 0.11384050218311581, -0.03653621544635197, 0.08571999995178453, 0.09607590000774262, 0.09095589981759757, 0.1491707997472743, -0.01751823490016957], [0.02559715212950621, 0.08919885093528253, 0.10559520482974619, -0.031020331518680985, -0.022094875625105925, -0.007690649256735016, -0.0034592253827880337, 0.050477962714006896]], [[0.041075586557246566, 0.05704865808208452, 0.002882443481994762, 0.03306683691551328, 0.0048688848050906924, 0.059789494455058254, 0.12344574854562959, 0.09309298503250818, 0.01751507736360121, 0.08673684941398077, 0.17779916064019108, 0.025370171293323307, 0.03892642357978322, 0.10922078927614684, -0.016097521039728002, 0.12552149773715393, 0.009342131892399963, 0.15451285615451954, 0.08101764625003419, 0.03977171821405315], [-0.38350189278240965, -0.5821521706260162, -0.4482861535147591, -0.4166002963481561, -0.41159332255055503, -0.4205858980947743, -0.6239826421832904, -0.47548827523463766, -0.5801899154530051, -0.5850545882023348, -0.49468107143628254, -0.47935716248869636, -0.4759606151420883, -0.4455237181753019, -0.4630139272149136, -0.5687369553301332, -0.5815659293882404, -0.5054620475793543, -0.5098366102850823, -0.4929789320387106]]], "bias_epoch0": [[-0.03253324531140977, 0.011245403433822401, 0.01537073502702883, 0.08624834808343915, 0.06403101875051408, 0.05278080763167187, 0.0837080931428412, 0.08501257581145967, 0.026229942072337843, 0.012870821672486705], [0.0877344800345303, -0.03921398614673428, 0.026895827042879156, 0.04828779601157239, 0.09460220106393552, 0.12191697432564674, 0.09274656358590465, 0.1293739232847254], [0.009588873849739277, 0.16721266687571884, 0.11259923882688143, 0.10841902741990815, 0.03920980367847089, 0.11173101876107282, 0.20049476770903982, 0.03051189375214909, 0.15677737473313624, 0.2030256865112054, 0.19377160692239467, 0.175538661190084, 0.16359540744575046, 0.15723165408237266, 0.09305506187516632, 0.2447838582524773, 0.11668542390976083, 0.07386753958118106, 0.056289015481377325, 0.0600860625776706], [0.08853878884872884, -0.9491462775547452]], "weights_epoch50": [[[-0.23602329437291625, 0.44630470626572677, 0.3832950403892045, -0.4088731365259835, 0.25380021292075144, 0.34819118213444894, -0.4261878848872006, -0.48589808091513886, -0.3421885017252859, 0.24431379823669463], [-0.18111798581461763, 0.4654028150833921, 0.44946370089699267, -0.3631047597907399, 0.3658689529262919, 0.4651227009320234, -0.4555534654608669, -0.3768092143481593, -0.3970172242803695, 0.20265306674632513], [0.030119782134514286, 0.008532875868663223, 0.10239270890744358, -0.20651621798283798, 0.10037782460424952, 0.06424691331281489, -0.016843062235999615, -0.010720331818428103, -0.12528720621947984, -0.0067072859065434795], [-0.17511070327545256, 0.3221303191974195, 0.3990386787743902, -0.4167391998230275, 0.2688953696465316, 0.38713196734615235, -0.3976986562176811, -0.4361283555495525, -0.2672918660763392, 0.1333394703439003], [-0.2004942620664772, 0.357024104513995, 0.5014426275468178, -0.3778383991381641, 0.38029545983812146, 0.40637386721602503, -0.4355472707102232, -0.4135496695939972, -0.32341319511798683, 0.22037396802270656], [-0.10327701306950529, 0.4219715749092153, 0.43524729789086974, -0.391868016582226, 0.2530291226788506, 0.4376058097913547, -0.31075052647058193, -0.35186802844940934, -0.3826967227249084, 0.11522483084645829], [-0.20784266354378117, 0.47033671717962666, 0.3764742188753247, -0.40063610339714717, 0.391725828589189, 0.34066515384116985, -0.39130622078266314, -0.43681106920938784, -0.41244827928089844, 0.08785388840179195], [-0.141644947034942, 0.29392402112012916, 0.4310786694548243, -0.4969280022233277, 0.31135390754147263, 0.33483851838630446, -0.3982092092387215, -0.34075863034782716, -0.2834570974766981, 0.1513680180536904], [-0.16669449818337106, 0.42711710347173926, 0.33856904303011254, -0.4523651023823851, 0.3208345763393099, 0.3738484112972996, -0.4168160031212499, -0.4186824563030542, -0.2777978116208263, 0.17795967833725365], [-0.17810257843574423, 0.31599696207460665, 0.3970020087237539, -0.45781532631245647, 0.24389415069777004, 0.44023106915584365, -0.2952052469872364, -0.3647627821988922, -0.33527139762235886, 0.21958967447981695]], [[0.3110356657320983, 0.397589490090172, 0.01014542919656823, 0.3980334607572574, 0.39309802903577357, 0.2501780049872713, 0.3814685038016028, 0.3074786931169793, 0.2892879736881214, 0.2129620308807332], [0.42735919474496703, 0.407366573966882, -0.08058430545460456, 0.32078799577820877, 0.4490666394907936, 0.24174785526435866, 0.40822705614393556, 0.21573134745159256, 0.3502958414146304, 0.316590400142986], [0.3461537966018609, 0.5082236000997121, -0.13647340588499954, 0.2815053573655014, 0.32520869965101423, 0.4276031864686213, 0.44948354425733666, 0.22822199045188182, 0.3529353216660098, 0.35938752951773556], [0.38175184145487406, 0.4320039018646868, -0.15768537525466184, 0.3459564870648369, 0.41376759183229794, 0.30713147265751384, 0.3664360135468994, 0.3873138829700818, 0.4057505139712443, 0.26536007038118725], [0.2585417884402032, 0.46061413645572685, -0.10816532144611139, 0.21817328642624534, 0.4319459969571266, 0.2317652562385324, 0.2787390281264626, 0.3742442115644308, 0.3828220009114903, 0.2428196504558652], [0.28898817459563364, 0.3031174984079003, 0.06864677088326504, 0.19180583595125286, 0.33653439221966674, 0.26387847959758076, 0.37794954949714565, 0.27217578130292897, 0.3339881721124712, 0.3394935648144178], [0.45136847588600454, 0.4715623714079867, -0.10605432233261593, 0.30093406145607504, 0.37389175263708896, 0.3538330206530337, 0.399514047721926, 0.3701498310683847, 0.3259573813821346, 0.25779942553532387], [0.39796597378631854, 0.38523435877355106, -0.08031373520622606, 0.32966231086101755, 0.41045952345163833, 0.3471605929536626, 0.3219557530432041, 0.2591641164334056, 0.29619031647694183, 0.3583757844127238]], [[0.25410682211850205, 0.30735639693617156, 0.21164965908936303, 0.2026242598490915, 0.16454809281577906, 0.20097590885510905, 0.33090166445005037, 0.34065352240004126], [0.17078352564851262, 0.24361205762247867, 0.3732049892553207, 0.35441834073018536, 0.14400587665958073, 0.14642836409830642, 0.3115886780353778, 0.16425050554743545], [0.29747828296904405, 0.30602320791178955, 0.19058249184743417, 0.306392392968914, 0.14894512417312322, 0.21671405941059238, 0.30241992463628037, 0.3020511643651787], [0.23465994655951028, 0.3034524312961761, 0.3633241270239781, 0.17519414667384653, 0.18090052704222528, 0.15894970589747806, 0.27692864342837276, 0.2418882601298024], [0.21445622805922857, 0.29164554152550687, 0.2797289531345635, 0.27973700831324044, 0.29220607922751896, 0.1273226886885542, 0.38198321843459043, 0.14275832482885867], [0.18420391470685754, 0.24183293644609455, 0.181433555686992, 0.33139328793302664, 0.2630541028692787, 0.13648313231499506, 0.27083173163273067, 0.2912338591467908], [0.1720104021272793, 0.21127469337718763, 0.1838977699239202, 0.3667129632814167, 0.15562452679674446, 0.1910448269098673, 0.25994035028708495, 0.2763219894451129], [0.29796582069171146, 0.21771531374509379, 0.2407963204156987, 0.16190222028919812, 0.29591322789914926, 0.1836955586836382, 0.20468809699316398, 0.3251840107605573], [0.216395081911048, 0.19105534224980364, 0.29432783867077195, 0.2495805269787054, 0.26817248501614205, 0.12263165931186414, 0.28690118830641476, 0.291888267126812], [0.15094859057018073, 0.33561454415368336, 0.2735407236461126, 0.31439953406875576, 0.24614300255943736, 0.11972818468969404, 0.2753040876207531, 0.28301188243592634], [0.2469662318023356, 0.27208949821170336, 0.2728107306915676, 0.3158490434518411, 0.12804142994076254, 0.2727260483185582, 0.24904091299327846, 0.19065854923899422], [0.26583999872630487, 0.16628747184556775, 0.34238923959072104, 0.23713087728292473, 0.23168929578969483, 0.25154654601302084, 0.25381036524408146, 0.16225367181984704], [0.29393185408849504, 0.32273098639600795, 0.298983891160368, 0.2654071957656956, 0.13184200394334908, 0.14265963366637519, 0.20362191964991141, 0.2814255546722642], [0.2445687461771989, 0.16998292660969494, 0.2481012955399078, 0.2715170157593426, 0.2326247601067058, 0.14255840287791025, 0.26201289166552816, 0.29366118969575283], [0.2918955320387743, 0.18054803355211485, 0.2577561550273231, 0.29815267223016517, 0.2729654223534909, 0.2854619694527491, 0.17934389889277388, 0.1378853098724691], [0.2500273604271098, 0.31663006963206036, 0.28855100404268313, 0.3068746447595901, 0.2501258322394018, 0.13759112426011313, 0.27234169328654956, 0.177193010214528], [0.26435404566188325, 0.3079063036031617, 0.24883160297751067, 0.28393161025594355, 0.21090432136187978, 0.17798885196685452, 0.23084214907439865, 0.22068904449618168], [0.17362541449180563, 0.214014700242892, 0.3791272316716477, 0.20564116858238052, 0.1444044066459728, 0.23835187945953282, 0.3111233192845976, 0.28996100549952447], [0.2658826508282757, 0.2618587834276711, 0.1940415241258246, 0.2979075225813379, 0.17647877402820003, 0.25699657249825575, 0.21457059889875887, 0.31112549742019197], [0.15220976341930514, 0.32298980658156523, 0.290337143536954, 0.21448929091055063, 0.17121833545097687, 0.22432021576272893, 0.30792581061657187, 0.27032991421028574]], [[0.1382928886194072, 0.1865331648767019, 0.1543171036555063, 0.12999031866758112, 0.09175177724920286, 0.11080866519168557, 0.2095008730987899, 0.2169078195616034, 0.12200080798499668, 0.15751720379265904, 0.10219659802821048, 0.15831391917868343, 0.16570735323861047, 0.2503674324874842, 0.15121195115977656, 0.14783721616457698, 0.14525063628097437, 0.088716365631179, 0.10334015980537666, 0.1820284839381598], [-1.2928094637266445, -1.1447197456625366, -1.4112294502154505, -1.3464701608871705, -1.4146055592405085, -1.3227202558203475, -1.100476120673615, -1.1698722111540607, -1.2749439929943562, -1.3876988193350748, -1.3571501522704534, -1.119705202267671, -1.3405238897829905, -1.2246334956657285, -1.188749020697922, -1.287834788016715, -1.2251814339149416, -1.2469737124353908, -1.3620266254186795, -1.1941664685245463]]], "bias_epoch50": [[-0.11117391933176417, -0.17379836375540444, -0.009149803569971662, -0.14136332511380403, -0.17733097912008178, -0.11522478274403647, -0.15115489775808263, -0.14322648309835548, -0.15567042704912806, -0.11470658154905544], [-0.5802339215113987, -0.6883895767839812, -0.7828286726521347, -0.7875265485922633, -0.4829071501109343, -0.44978468634275653, -0.8244724749627228, -0.6655313900279153], [-0.16902879675783183, -0.14129376700187218, -0.2104858757167426, -0.02727239942849568, -0.11328291786211135, 0.014916380525832738, -0.0031968838555069858, -0.07453236303948751, -0.03943865867148362, -0.1037026543271687, -0.02415758557227108, -0.12711001756250892, -0.007332006758341204, 0.033784679683737356, -0.01703064915554767, -0.1706787814771179, -0.13828241455844215, -0.1335830117095406, -0.06927321340202175, -0.13275262678226799], [0.4555511932079854, -1.4845900208775664]], "weights_epoch100": [[[-0.3204626826276416, 0.4206638120054335, 0.4823419401565453, -0.5849831580927151, 0.4592302804702917, 0.36612715338892243, -0.49943146333807786, -0.47639752002633196, -0.41046512615986497, 0.011479606936231141], [-0.33149863754388414, 0.42792860791396176, 0.3678225727873677, -0.47079771982452845, 0.4001683620951633, 0.46414563470543724, -0.4378167743707254, -0.5549618761389306, -0.4722250947952211, 0.1376856604316398], [-0.25305245957249256, 0.45298567983985316, 0.4831948501169954, -0.5293029131091117, 0.4133498344059952, 0.4444309793301031, -0.4653770246442446, -0.5691653713476224, -0.38762108204173296, 0.05984231620756688], [-0.18659951644214487, 0.4289295604629667, 0.3252698742660497, -0.38440502887240674, 0.43861509229522183, 0.44019752378760146, -0.5241860537119848, -0.4882037082000624, -0.4481421102619668, 0.07573381376661502], [-0.2581339431748779, 0.5406522891895493, 0.371682206118098, -0.6093611130221577, 0.33601842683316135, 0.4234861019723202, -0.5533083192284172, -0.4449764152704635, -0.46109840373631517, 0.10252385404141272], [-0.25400388966677706, 0.39586645316036984, 0.44827219324412204, -0.5852238154214358, 0.4525171300577807, 0.353216759730572, -0.4885869818433474, -0.5242177907130458, -0.4286727720575988, 0.09663735143295224], [-0.20423062747459475, 0.3513562294140191, 0.28166490509753056, -0.322307350526877, 0.37762373652791986, 0.38450780880555113, -0.39140478638596365, -0.4460510251155386, -0.26310758161963643, 0.1737026956327933], [-0.04152408060265869, 0.15572908754603715, 0.1784152582058367, -0.20694994605424122, 0.14297510565688948, 0.1621120044341355, -0.23254673822719163, -0.1481435482332365, -0.10103074408968642, 0.15040028796579083], [-0.30763936498742056, 0.40706849947585366, 0.40629285427813144, -0.4588136978030836, 0.39477858880428873, 0.4513531716352583, -0.47253587878126124, -0.601582300213791, -0.4953390599815616, 0.055392465579743685], [-0.3347461672320889, 0.40397738428706287, 0.4452608035643385, -0.5205946353529484, 0.45462864450631557, 0.4407392893668124, -0.4891102013005749, -0.5562955220430111, -0.3851930928794223, 0.06273838461103708]], [[0.56416024144418, 0.49830269852757925, 0.586173550337623, 0.34191365170889226, 0.5389001537108074, 0.4774679231195277, 0.1925533143921875, -0.08050362013916519, 0.5318128882117574, 0.4634987477516015], [0.4859465608149371, 0.3620020474042481, 0.3776132401102746, 0.3403981708566305, 0.4953491928797012, 0.3900357984932711, 0.20532690144413315, 0.003847533822780462, 0.49480082388655805, 0.5102353919397545], [0.4604370654478732, 0.4043696754235477, 0.571813039427587, 0.38853830197157035, 0.546801816483272, 0.4443415557347844, 0.2074976602116199, -0.08668346454809736, 0.46056089831106667, 0.5447732980827922], [0.3870846380322593, 0.4743667354381285, 0.39338361958043083, 0.31705370063641214, 0.5663228099832986, 0.4893588202836606, 0.24374538955477543, 0.05437377495619933, 0.4734181346351891, 0.47977877345794884], [0.5033356877710021, 0.40299538227527, 0.5456392730277329, 0.3547319113878593, 0.4430717264453491, 0.4139454667389349, 0.256020638120982, 0.025613318884455356, 0.4713412015737559, 0.5270722651087342], [0.5583775537809884, 0.5036258469612954, 0.6045473493512186, 0.4058955801235444, 0.4990954462263542, 0.5634881870342618, 0.1835869375818668, -0.039659476117150066, 0.3950376913365931, 0.46230652068434563], [0.5225831307431891, 0.5258491615079796, 0.4444863540506914, 0.5004037969627717, 0.5160232066867703, 0.5129860445798012, 0.17366907556626715, -0.06627556769377814, 0.5635687751098016, 0.5393342727351965], [0.569594699294408, 0.49929463507871863, 0.5984042069053687, 0.3773224880881359, 0.48013794767080015, 0.526825204561071, 0.21167636288143096, -0.1070000100509571, 0.46918431320374404, 0.5277402323387514]], [[0.34379430482931467, 0.2912173990721538, 0.38364784993937423, 0.27977172810390555, 0.34383567339544, 0.28658139371869157, 0.41570429644516593, 0.42118768093286024], [0.4371002276437464, 0.27933859405526734, 0.3030491432769477, 0.31784481279018795, 0.27945718864460145, 0.3227178174818899, 0.348878945734781, 0.47145923646453175], [0.44436873543831706, 0.17475829240402266, 0.3162436129299612, 0.3088238412818651, 0.3672564818834512, 0.2867051402409718, 0.453087108977515, 0.3849292561659925], [0.29185074057761234, 0.2133166926215599, 0.2688382809422646, 0.2385304238247135, 0.4283714574008857, 0.4504697319550027, 0.37792497820009113, 0.33152997265400114], [0.4414223455226298, 0.23455693784899, 0.3362509352693863, 0.25182671120552524, 0.2773878135236352, 0.4850040368504111, 0.3635606770332303, 0.3804406976382461], [0.2678230242269102, 0.27735977827725905, 0.3856376783340591, 0.3554851711904772, 0.288704226812287, 0.28834658103367056, 0.40428295931170105, 0.4389292698015178], [0.420704344724724, 0.2923133180847879, 0.27126680235535755, 0.2958144350450107, 0.37323744030338213, 0.4281815120982309, 0.4252327175814342, 0.37554983674226944], [0.3290999037446709, 0.3433294544364314, 0.3666711238510168, 0.37582874717872944, 0.39926113818626136, 0.4448531350554945, 0.3501992512432542, 0.3451011952763051], [0.3207388947924297, 0.29320610491058186, 0.31141606702504965, 0.2938241268901587, 0.37694022016191764, 0.37755531599511244, 0.4060597142700297, 0.4412596140283651], [0.3884486143549655, 0.25569203700676557, 0.3482965149926017, 0.291621684761627, 0.34568568732411264, 0.4397339040777418, 0.36525794261617256, 0.3142806803470821], [0.38558580282467203, 0.17238332989159078, 0.36154343725873234, 0.2548553706285385, 0.32765514380286365, 0.36761545688268293, 0.4177146311454188, 0.34689580038855133], [0.4030478905236447, 0.2328006460912727, 0.27049550148264595, 0.3645591071069308, 0.23751513960458828, 0.3579958561146472, 0.40262403519971096, 0.34282705983620243], [0.4189172904492938, 0.17941376073519272, 0.2733282691594345, 0.28763293057194816, 0.2567690815865175, 0.3869873726033225, 0.4793373157729266, 0.42882589418893197], [0.3206230013998883, 0.16708573862367126, 0.3551559935680491, 0.2210162494358668, 0.2844507852739194, 0.40940612693918804, 0.414361508007406, 0.4447382275754445], [0.35547863316477263, 0.18356196315629753, 0.4431456505966851, 0.26277207463444685, 0.34590076872778436, 0.33039339398520584, 0.40679699039983264, 0.4263994173535025], [0.30993331387017264, 0.17003260754022897, 0.33636596103320515, 0.3342739233955979, 0.2403735431965229, 0.4455433414205189, 0.3550687737614564, 0.43244440086364005], [0.4568230994733631, 0.30520862148732153, 0.2836588757588342, 0.3578223106962981, 0.3056321973218452, 0.41319000363272257, 0.4760523056114647, 0.3433777489531939], [0.38336236526526446, 0.24461611962257704, 0.3437979816662843, 0.2882757765914864, 0.321894386120844, 0.3450777617091988, 0.41940324025426207, 0.4615421885285623], [0.42725584370650943, 0.3226995305058406, 0.23789555901523063, 0.34100693355437156, 0.3577112716714544, 0.4085201414408029, 0.49186456451670185, 0.3085294024135872], [0.37035122174627017, 0.33123785273699635, 0.4096700788687205, 0.2585961032609423, 0.27362122090996716, 0.341699148957952, 0.3700751165865436, 0.4062188482143017]], [[0.07783852023758846, 0.12394511902390593, 0.06368074902185054, 0.12048236701434933, 0.04481847087371917, 0.12757956772294524, 0.17000640736254594, 0.098294234478255, 0.07244372354102158, 0.1619935875386407, 0.2680806145004839, 0.12402663563889148, 0.11099589305153398, 0.19685414902519607, 0.038512597906012074, 0.23010555587882253, 0.032759335337933564, 0.1888451912257958, 0.09972491270936928, 0.08757185283710982], [-1.444332302712557, -1.6140371539919742, -1.4891232752933599, -1.354422524247699, -1.4664322123285705, -1.4654720032933224, -1.7884681125635509, -1.6820723975589709, -1.648118631052772, -1.635471265292986, -1.524123991450548, -1.423509396726793, -1.5235167353993684, -1.4444178703463382, -1.4919376433386213, -1.5524989495286916, -1.7357080761881345, -1.6176460532336994, -1.657907211768304, -1.5080627780716924]]], "bias_epoch100": [[-0.3410776218150924, -0.2980634427447923, -0.294545059710478, -0.20566575497296552, -0.2576320073122438, -0.2581714850320951, -0.12850032395362856, 0.040376367130109884, -0.29250314685521683, -0.30010028349743567], [-1.7577990062594293, -1.383231021430073, -1.6181186097657365, -1.5434206927158978, -1.599810618116803, -1.7717622136142603, -1.8529780672044227, -1.7934815479936952], [-0.7610004592251838, -0.7370966746209505, -0.7200308006651012, -0.6061328959736216, -0.7583695967701531, -0.6985067467983598, -0.8496694215288902, -0.9192253684884986, -0.787335184363074, -0.7270652998171281, -0.6370295171928944, -0.6033228234864366, -0.6970677743201786, -0.6213251992006062, -0.7353083343085763, -0.6147860785396035, -0.8932744213733612, -0.8004259758487419, -0.867296348887981, -0.7484105639357017], [0.9821326853815396, -0.6430975562660416]], "weights_epoch150": [[[-0.20859450434825866, 0.36451032632902886, 0.35852683263107, -0.5131289152122338, 0.3903208914636576, 0.2636700036775711, -0.4185527720355481, -0.40465727454116424, -0.26762616509331216, -0.17876974161218237], [-0.20399014835353424, 0.38722287873594957, 0.27441259371964455, -0.40940537700781204, 0.3431613535876334, 0.3864462632665613, -0.3683409556805876, -0.48876381960750453, -0.3370850322739813, 0.011526938188081752], [-0.055528608623266903, 0.3967508870547159, 0.37597720773101184, -0.4449607031565617, 0.33655136846504174, 0.35034604874846875, -0.3717375249493315, -0.47319232933215605, -0.19930422126168199, -0.0664068235021255], [0.005483194167815444, 0.39508954364939636, 0.25937974183011553, -0.3231868797389075, 0.38728698624942126, 0.38379053908707733, -0.4601583223936235, -0.41292416205744864, -0.2875689803309734, 0.01600177043502656], [-0.05866550948740358, 0.4911299992379028, 0.27360061727876983, -0.5310699920138775, 0.26142502871194895, 0.3377215196284447, -0.46754915418987547, -0.35105298334473567, -0.27815035076143757, -0.001853037942196312], [-0.06796989316146675, 0.34742802046547294, 0.3571071944050501, -0.5125634130296977, 0.38660786532804237, 0.2706946805093157, -0.40731275150487656, -0.4385785208812021, -0.25653694454218656, -0.007025481015367041], [-0.04928832170828814, 0.344093232201832, 0.2635852493757491, -0.2935005380006654, 0.35767123354339597, 0.3698213925072713, -0.36400507987988256, -0.40159489959965844, -0.14582453700276976, 0.1765367392843864], [-0.07200148159933845, 0.1401657154833504, 0.16558451072804287, -0.19481510997010126, 0.1297460156349804, 0.14740422454378738, -0.21825308481942943, -0.1402803736737018, -0.11758665662856124, 0.14314698279090457], [-0.19297093346295308, 0.3607699627167762, 0.30090256835624474, -0.3946865312544391, 0.3343107800126041, 0.36413924894512123, -0.4008534068353355, -0.5365621766442308, -0.3631057642908572, -0.1024515238401142], [-0.19706027552461428, 0.3504103134910989, 0.33396170227859473, -0.44759333262505285, 0.38642469016773107, 0.34684384096710497, -0.40750352275897, -0.4788328947937025, -0.23074914093327062, -0.09228752157519357]], [[0.5560224852388713, 0.4825105979158379, 0.5780417140529731, 0.33934254295087096, 0.5282141515307522, 0.4673786521735457, 0.20355717809363644, -0.06484712451933335, 0.5183526805754467, 0.4520099787095659], [0.49068208620548187, 0.36311832427831603, 0.3859726815817417, 0.35307282113080357, 0.5012610775303603, 0.39664656308416385, 0.2300273164633373, 0.02734402856886038, 0.49602476244446353, 0.5133660290698254], [0.4579658655885853, 0.39562511716034604, 0.5701678161293274, 0.3921597241374165, 0.5428400774804502, 0.44113962001339463, 0.22452962909937543, -0.06679213286563246, 0.45335184095034475, 0.5389599331506918], [0.3892488424563422, 0.47065357533464386, 0.3980628533064088, 0.32664781399832926, 0.5679423187710068, 0.4915795749299664, 0.2663762006801653, 0.07839580511337733, 0.47095736103367036, 0.47930022953037665], [0.5026365309711732, 0.3966912755779535, 0.5467934991249557, 0.36142272761298694, 0.4423575882194857, 0.4136234965363862, 0.2761780158814004, 0.04822865876821314, 0.46624381567467504, 0.5236662032319875], [0.5500600634409838, 0.48743671827105395, 0.59601007572235, 0.40273983408220687, 0.4882628536760982, 0.5526338865702234, 0.19453585166048723, -0.02354909053152027, 0.38195945669397835, 0.4505183156141335], [0.510559688897523, 0.5047682768773031, 0.43182153334660006, 0.4916790067848652, 0.499989703173296, 0.49728450594445095, 0.17933211465667662, -0.05442403157910523, 0.5453469958374839, 0.5226521615032894], [0.5590688963823213, 0.4804993529701571, 0.587112371166229, 0.3713375219190267, 0.4665190585434712, 0.5132849194607949, 0.21918559683076122, -0.09380285525957906, 0.4533759835730524, 0.5131371120965392]], [[0.3708696197219807, 0.3097886321035661, 0.4076482421548518, 0.3028822108417683, 0.3680413862412455, 0.31443335669251415, 0.4442992884419742, 0.44862915260838454], [0.462825276007387, 0.29652210368169973, 0.32632804712829205, 0.3395129791647698, 0.30284937135855333, 0.3495060310931297, 0.3770651758770817, 0.49782698182557833], [0.4720855963178137, 0.19460048996416177, 0.3415904487863159, 0.3327332852802676, 0.39235340302095795, 0.31573202231849323, 0.48272886063303544, 0.41373012549904253], [0.31228186674677005, 0.2264218680660122, 0.28676210534036733, 0.2552853575368501, 0.445469588783166, 0.47048346689255566, 0.39961345035106594, 0.35244725640840285], [0.47081713298196215, 0.25572801593443306, 0.3631793327774887, 0.27772306686620146, 0.3046266754022434, 0.5147265552879654, 0.39530880006023433, 0.4109228004472829], [0.2909650376025899, 0.2920848489746638, 0.40537102453359286, 0.37396462901319566, 0.3089052132248368, 0.3118098635455766, 0.4285668392429844, 0.46195440141673694], [0.44756439400750725, 0.3100042027099264, 0.2955656064851021, 0.3183705476292374, 0.3970368214613759, 0.4555135200873382, 0.45421212599530664, 0.40349899611006956], [0.36094661307872605, 0.3653192377599006, 0.39513459219897074, 0.4027217897698308, 0.4276107193574583, 0.4766967496346714, 0.384039171529386, 0.3777042335758441], [0.35212862881957396, 0.3146910494900281, 0.3395836299230906, 0.32049563098268297, 0.4048039365326933, 0.4092447579568116, 0.43916771025389295, 0.47290398719307913], [0.4118653114602842, 0.27072155333775494, 0.3688396138147482, 0.31091901423816853, 0.36622687744436083, 0.46334304411994304, 0.39077210776717997, 0.33886976616408604], [0.3982543222831081, 0.17898625982082886, 0.3717231520584464, 0.2642257856463191, 0.3379508723530431, 0.38061858279712013, 0.43185870587601116, 0.36043473376384877], [0.4237253290411536, 0.24620758033590265, 0.28908048818758436, 0.3812911771319251, 0.2562351748270125, 0.37929505093446414, 0.4250765562627063, 0.36452353381505204], [0.44352161255912964, 0.19629108460679098, 0.2956821266447582, 0.3084402244804301, 0.27919462249847443, 0.4122200677354994, 0.5055708832869494, 0.45415879359846584], [0.337139484342261, 0.17694273353590942, 0.36888120373470273, 0.2340778097524846, 0.29848709846804816, 0.4257878521602193, 0.432073446951739, 0.4613173634413445], [0.3857969526403249, 0.2052358001264002, 0.46996138019024064, 0.2889959810079568, 0.3732159099912201, 0.3613980108756864, 0.43887397887126584, 0.45716688190324256], [0.32597043345500176, 0.17904356396560905, 0.34951767973369013, 0.34603327791716476, 0.25395885283120684, 0.46121019020843423, 0.3726234328837888, 0.4485867591999535], [0.49355281502203013, 0.33192434927681946, 0.31782107269596227, 0.3899991245894039, 0.3397556489389418, 0.4508188549374163, 0.514961252364084, 0.3815727573677551], [0.40550128674651936, 0.25881012515040985, 0.36316762498467015, 0.30644430526193234, 0.3413585097748624, 0.3678187509699318, 0.44326794501890443, 0.48406503206706536], [0.4574206070693219, 0.3436729797660382, 0.265820424612423, 0.3668831308727335, 0.385071602821542, 0.43933566107521854, 0.5237924869826661, 0.34011942157101616], [0.39746741863631124, 0.3494858568625072, 0.43360559812146765, 0.2818208409932855, 0.298238923664206, 0.36945982145328293, 0.3991391424835856, 0.43393666072567205]], [[0.021850833126594773, 0.07167270857682317, 0.01566365970716472, 0.11212388133142716, -0.013804664442979217, 0.09066742506641619, 0.08437676240165777, -0.006018304313008566, 0.0027460758512446205, 0.11352563530400965, 0.2526141322001574, 0.11455440325762249, 0.07031887533714466, 0.1844061659587814, -0.014907610887277272, 0.21812409233083022, -0.07002791767208989, 0.12207242855396754, 0.009559474939446897, 0.033991715164409596], [-1.5253542440308459, -1.6922859061871827, -1.5662135280361478, -1.4148533221763382, -1.5484511173990343, -1.5377948716058796, -1.880740288545822, -1.7828457246102996, -1.7336392116022963, -1.7118908599943958, -1.587128102762033, -1.4838744478326045, -1.5974299331506105, -1.5065146717029434, -1.5712679728374017, -1.6134769987241824, -1.8353147340028149, -1.7029246635468704, -1.7528279648370124, -1.5875028661999004]]], "bias_epoch150": [[-0.4110160498334901, -0.3357510581024087, -0.2961271172911864, -0.18689200437863288, -0.25590508771623144, -0.25736774875302, -0.09142616519964272, 0.041426465632071266, -0.3525142117111777, -0.3432982257377661], [-1.9246255225014985, -1.5186967797988318, -1.7731405885103826, -1.6875175688561408, -1.75062607857257, -1.9365880410113994, -2.024917789889974, -1.9642487105857636], [-0.9081803205439037, -0.8939326973272919, -0.8756370771083618, -0.7335510538167882, -0.9148363604622511, -0.837963361765443, -1.0148983679620682, -1.0854316101515642, -0.9579888478751264, -0.8783943928823348, -0.7521510595473295, -0.7381135064970489, -0.8466756960370246, -0.7426639470394838, -0.8963327441571864, -0.7411367725417642, -1.0781863246656922, -0.9438415809293742, -1.031817110281081, -0.9008274766211718], [1.712099717650883, -0.38798779318554066]]}