{"input_data_shape": [1000, 10], "val_data_shape": [476, 10], "structure": [10, 8, 20, 2], "func": [["sigmoid", 1], ["sigmoid", 1], ["sigmoid", 1], ["linear", 1]], "starting_points": [0.001, 0.05, 0.05, 0.01], "eta": 5e-05, "lamb": 0.0001, "norm_L": 2, "alpha": 0, "nesterov": false, "epoch": 50, "train_MEE": [14.701537442054502, 9.364777581903814, 7.430657650495422, 7.354475257716378, 7.338208330882895, 7.316061404990412, 7.292626972416516, 7.268524648340036, 7.243786347486426, 7.218428657767898, 7.192493618527555, 7.166038505476514, 7.139124711551211, 7.11180938746239, 7.084139729155853, 7.056149597350182, 7.027858064728375, 6.999269415648845, 6.970374122370035, 6.9411503831512835, 6.911565901238672, 6.881579682268135, 6.851143713947568, 6.820204458783877, 6.788704137542509, 6.756581810984698, 6.723774284321273, 6.690216866714715, 6.6558440202974385, 6.6205899319419075, 6.584389038033935, 6.547176528774754, 6.5088888546441686, 6.469464253877318, 6.428843316237692, 6.386969594997491, 6.3437902757955635, 6.299256907843361, 6.253326199701376, 6.20596087847808, 6.157130607761808, 6.10681295586787, 6.054994402091031, 6.00167136466312, 5.946851230135853, 5.890553360092224, 5.83281004762649, 5.77366739314354, 5.713186066951954, 5.651441925102974, 5.5885264451883465], "train_MSE": [259.51323583550726, 117.38321411003717, 67.47979906325193, 63.132456633975465, 62.65225824337084, 62.26737540306151, 61.878600839493544, 61.48161868730536, 61.07613786208562, 60.66268064596904, 60.24214787056904, 59.81561713004792, 59.38418650802213, 58.948853507832375, 58.51043221249717, 58.069507151199446, 57.62641794821284, 57.1812667597641, 56.73394044928937, 56.284140638585846, 55.83141647713235, 55.37519668611223, 54.91481888137173, 54.4495552634484, 53.97863449494949, 53.50126002926702, 53.01662538639657, 52.5239269609571, 52.02237494898334, 51.51120293252157, 50.98967658996214, 50.457101920728576, 49.9128332937435, 49.35628155380695, 48.78692234974481, 48.20430478256416, 47.60806040991088, 46.997912583808535, 46.3736860411563, 45.735316610431944, 45.08286084372135, 44.4165053314727, 43.736575409806846, 43.04354292899065, 42.338032719506934, 41.620827372105545, 40.89286994349217, 40.15526421292924, 39.409272149480316, 38.656308306512535, 37.89793093968216], "val_MEE": [13.289854615022723, 7.704360434500746, 7.069194009609751, 7.089799887719746, 7.075128278086285, 7.0533377796010726, 7.0302922718021605, 7.006577496646117, 6.98224341581741, 6.957326753321697, 6.931882345565133, 6.905972113454343, 6.87965516519971, 6.852981333780718, 6.825987446759708, 6.79869568296381, 6.771113455354607, 6.743234314761355, 6.715039446575587, 6.686499430389588, 6.657576032743162, 6.6282238908844215, 6.598392013809002, 6.568025075110283, 6.537064503134063, 6.505449391640296, 6.473117262619543, 6.440004715392568, 6.406047995086812, 6.37118351070378, 6.335348329318631, 6.298480669091831, 6.260520410024794, 6.221409637867866, 6.181093233288523, 6.139519515269875, 6.09664094465017, 6.052414890647614, 6.006804460069267, 5.95977938562978, 5.911316966387246, 5.8614030497567455, 5.8100330409429715, 5.757212922036348, 5.702960259575425, 5.647305176259586, 5.5902912598963805, 5.5319763808043625, 5.472433387993815, 5.411750654743547, 5.3500324458945245], "val_MSE": [215.9218754177431, 80.91180239423572, 59.27508263938207, 58.637969567847556, 58.33064641439813, 57.97339348096062, 57.60174465330275, 57.22109326593619, 56.832559843721825, 56.43706721369081, 56.03566118515086, 55.62941129415254, 55.21929663287252, 54.80612439027047, 54.39048380181088, 53.972730061019085, 53.55299048418233, 53.13118515185285, 52.70705537734141, 52.28019498264722, 51.85008101244512, 51.416101918014775, 50.97758229709008, 50.533803990809055, 50.08402377459462, 49.627488109157554, 49.16344550801596, 48.69115708200718, 48.20990577710532, 47.71900475435578, 47.2178052849521, 46.70570445762497, 46.1821529233677, 45.64666283521523, 45.0988160780261, 44.53827282407293, 43.964780393713134, 43.37818234570254, 42.77842766848016, 42.165579892186244, 41.53982589209936, 40.90148410903005, 40.2510118730276, 39.58901148607821, 38.91623470018171, 38.233585222300114, 37.54211889004097, 36.84304119394737, 36.137701875465595, 35.42758640440495, 34.71430423486787], "weights_epoch50": [[[-0.16228158609340296, 0.45507014131201984, 0.3595197839082381, -0.4535986723234082, 0.3046326679427964, 0.4409575067776659, -0.46833784335966283, -0.3687080420339619, -0.4210152811261917, 0.1357214966614082], [-0.21335335614841397, 0.5000340688055962, 0.37800718870242206, -0.4613369795419839, 0.39481217651322065, 0.48101860928850376, -0.37158702448080316, -0.38018911650595305, -0.33849822401329177, 0.08075730001904644], [-0.03120877158166863, 0.32403967736686196, 0.32939258948161365, -0.2934868268511231, 0.29670321467118366, 0.381007719432212, -0.3336367036016611, -0.2380008157953658, -0.21754125432209545, 0.029884269346614936], [-0.2201404926743278, 0.4640120265122312, 0.45240208089343353, -0.3245512818393878, 0.4429760003170385, 0.3568954323832024, -0.3128907643949882, -0.4511521894606626, -0.26843770607922274, 0.1600358777242606], [-0.09954221481627754, 0.23445816655999782, 0.31334028591627183, -0.33928720947474983, 0.24529385081799496, 0.32973852220558303, -0.4016274969414743, -0.2725160953027266, -0.2269742781521645, 0.20776564989628724], [-0.19551937619664062, 0.48677904483010903, 0.3913419478615713, -0.33039945810999866, 0.3801894576625891, 0.3806556825449402, -0.3321379973117549, -0.41136532272330223, -0.4045891330758139, 0.16600836656849077], [-0.09483054344371149, 0.37172312551744324, 0.4488320784382817, -0.464663510532877, 0.4078075920892675, 0.33536144389872985, -0.43829627318909925, -0.3660778376497275, -0.4422990961872994, 0.14797958598650093], [-0.16724307902193578, 0.4189088566310239, 0.44130439058095167, -0.5166620975097712, 0.4199527657484583, 0.3238730920486192, -0.4899392506847408, -0.3282336930494499, -0.43655375642597205, 0.152393548918545], [-0.17446461116581846, 0.3168685643336114, 0.384430250888529, -0.4805210662194343, 0.329293799939171, 0.46950371157136833, -0.4863236977139547, -0.4705737590857298, -0.3097815332423014, 0.11480755800709097], [-0.2314397839886757, 0.42423519783217006, 0.39129688934820994, -0.32002011589341656, 0.3095767600233538, 0.3291776576216644, -0.43705829274001856, -0.3322912791841784, -0.218907945378736, 0.22057879816551207]], [[0.3870264385760709, 0.3636229455033278, 0.2118827462626809, 0.414278553388389, 0.10173794209286706, 0.24546498682697437, 0.3704082479545313, 0.43545984457051157, 0.37673740847730586, 0.2698163271124346], [0.44750211330923806, 0.4371988381561059, 0.170785660166501, 0.27613202367921746, 0.10817478146311596, 0.3734618900794185, 0.2969792902983537, 0.41602590968913616, 0.2684800700743408, 0.21010047490860226], [0.4275361989378416, 0.31383223742400423, 0.12500785002381593, 0.31278505877690577, 0.13376592856719863, 0.3545358847023117, 0.31536154876199385, 0.43434064782877174, 0.4396135908878449, 0.2742630450096671], [0.28287048508731827, 0.38375181193524355, 0.24083999942892625, 0.2737305879737194, 0.181703940010122, 0.3001611023393518, 0.378204509620223, 0.34203572867333343, 0.4135618189562013, 0.21781320867178888], [0.5020380792711222, 0.469156959243711, 0.13223563316009865, 0.3074361930583695, 0.1908358754015598, 0.35695003708238365, 0.3774581432638947, 0.49435808119716446, 0.4056205962240391, 0.2434344190861717], [0.2888001236254863, 0.3438398122466867, 0.1434576846564318, 0.37241613580533917, 0.19265771307998, 0.38624273600794523, 0.34486107177045744, 0.4632088526355622, 0.26347853323099796, 0.3524749891113226], [0.3836014522976843, 0.45612148812709435, 0.22235137107752492, 0.41458269528171304, 0.22314893585283835, 0.3833916106843972, 0.3362390973173002, 0.3552043507762626, 0.4335062817152064, 0.1874783565275803], [0.33768981952855653, 0.40046243968059975, 0.1228379657636253, 0.28364967715463857, 0.27515443399784484, 0.24446595565523704, 0.4395654355980815, 0.34420065334274225, 0.33719429989860755, 0.37374761630235226]], [[0.23422597275953774, 0.29246273078289314, 0.2833079297972518, 0.15082046943652705, 0.3397680395602795, 0.2697579192301689, 0.3266971982934483, 0.18995956325116245], [0.19010160606079698, 0.22485124366030348, 0.2809494499564804, 0.18283661917517383, 0.26244416921504815, 0.19353396440338286, 0.3145079236515414, 0.20870027819823822], [0.31011470807896896, 0.16483529116853105, 0.15749828437909416, 0.23564618734478934, 0.34613897641892843, 0.2265591909486221, 0.2693053464241629, 0.23851370163117747], [0.1990723090208414, 0.29052587901624194, 0.15757138451749256, 0.3051824612949868, 0.30918757900177984, 0.33930367403212575, 0.19757728952446096, 0.14017952230461633], [0.26533682787378376, 0.13017149462946986, 0.19386770171163628, 0.1780410493227087, 0.29802712570470413, 0.2373499134774388, 0.35565948889598464, 0.269593016589032], [0.2178732488557434, 0.3031614907373175, 0.1742442013116851, 0.15697947998823356, 0.20736653854491918, 0.27250622660241147, 0.32269451456090004, 0.30332425607656743], [0.24503883517282038, 0.2761237018324217, 0.19616785360020803, 0.2048439592793485, 0.36972897161704105, 0.16080952332383536, 0.3373956027460129, 0.3159304403353537], [0.20372823149110078, 0.23417887595376502, 0.16570047271642, 0.1798407025894938, 0.3557820776571733, 0.18645306563454073, 0.3273177124417751, 0.23201293717808508], [0.25538202154946876, 0.2894649269581951, 0.3184152428120219, 0.12853277421629, 0.32894025907332314, 0.1983308653913397, 0.36205550950338067, 0.15970089115302996], [0.21258898133159734, 0.20520516870920133, 0.20769438945027824, 0.1968193341685514, 0.38492628971015047, 0.18140692517853896, 0.23852544151856933, 0.30981020440861884], [0.27284780270181763, 0.30078302101897886, 0.23864979063983374, 0.2636751270573071, 0.2668965625584806, 0.26494841227685545, 0.21434379697810502, 0.23228276631286596], [0.26515452151982793, 0.16159672963628607, 0.3077450367655861, 0.2519126636903311, 0.2717030857225122, 0.2006641877779065, 0.23006321081096875, 0.2901588789631405], [0.31014821108270296, 0.19742631154157456, 0.2714232271267797, 0.17024448229463465, 0.3034360759807083, 0.169387560183664, 0.3426746595814921, 0.17166973896548388], [0.29098269622971257, 0.25258685363876193, 0.3270771892783321, 0.21795001998453756, 0.19600762115014916, 0.31811558888014857, 0.18756859366133716, 0.3087326745936714], [0.25425905709692437, 0.1595333241510912, 0.3064300985044106, 0.21138607535498075, 0.3130409205489721, 0.2404600867969002, 0.34432430779039186, 0.23283366970513175], [0.18431964846029894, 0.19158411147867074, 0.14635368437637658, 0.2727288422229064, 0.36818073306647414, 0.2792321274000926, 0.25835904828530476, 0.30255587620546465], [0.2827670119904865, 0.18051002112827164, 0.20251695983046347, 0.22845614158078106, 0.30342523165959506, 0.24874585313259154, 0.31767706567661297, 0.15534366045761835], [0.28357123126438355, 0.22242984126234466, 0.15017000891260754, 0.2041858841151708, 0.2966116399153939, 0.2887428656504554, 0.28440847452234874, 0.2734104237313457], [0.18304621680763136, 0.15165814919278495, 0.2447722888083554, 0.24340462188278741, 0.3769337420144293, 0.22360096881644168, 0.2870628818554588, 0.2918547929596718], [0.258243212322926, 0.14410070925027113, 0.2962019028014076, 0.2813840160912439, 0.29688980643230334, 0.31035855336882295, 0.2623967370109245, 0.13312331460210614]], [[0.18100821697229888, 0.125220198501534, 0.2075791239525667, 0.16555435722674333, 0.16703274518955546, 0.05486507673481107, 0.06928438207527772, 0.20693270650000392, 0.14334004072737755, 0.17857266604633373, 0.22550130974024696, 0.22776172990861487, 0.2102034117690038, 0.0639905149210579, 0.14215743662645955, 0.054215714882849625, 0.1926332816948485, 0.23641553631716894, 0.2180000526162643, 0.10073499892028262], [-1.399554527548569, -1.0867513300187819, -1.3096548999238622, -1.1444753097569629, -1.304336022661258, -1.1301468001678476, -1.3985113337238309, -1.251143687065801, -1.4004443808253209, -1.2045267093020158, -1.37057819590548, -1.3522683243971616, -1.251699476647146, -1.4234608665482753, -1.273028370693573, -1.3167253344486078, -1.1492827610168401, -1.3477412828977693, -1.2851032996530751, -1.3207381275618997]]], "bias_epoch50": [[-0.18978185822821625, -0.2036130427796889, -0.16015557504510355, -0.1288338110828992, -0.10356073970571707, -0.08079783255439467, -0.060746637564903574, -0.1642397527251605, -0.09402716675489199, -0.08872201298164444], [-0.7430115951876073, -0.6172665047806388, -0.735230379636317, -0.611083418815961, -0.9694407136439358, -0.7109850254415111, -0.8820555185660656, -0.7281951883091602], [-0.2255311504122829, -0.0396891680561055, -0.02715063307675998, -0.10549044748028533, -0.02912319530371487, -0.14619863019822416, -0.23996224245392306, 0.014978160134528264, -0.1430193433269205, -0.10839350532456159, -0.16799761469307245, -0.039819724357649675, -0.03292715593914512, -0.19854257666303493, -0.2238590445006691, -0.11223752336828441, -0.07900785780293315, -0.08334460488713073, -0.146687262933704, -0.06448896828899155], [0.3283010764031949, -1.3391953899677798]]}